tree
version=v3
num_class=1
num_tree_per_iteration=1
label_index=0
max_feature_idx=29
objective=regression
feature_names=mean_radius mean_texture mean_perimeter mean_area mean_smoothness mean_compactness mean_concavity mean_concave_points mean_symmetry mean_fractal_dimension radius_error texture_error perimeter_error area_error smoothness_error compactness_error concavity_error concave_points_error symmetry_error fractal_dimension_error worst_radius worst_texture worst_perimeter worst_area worst_smoothness worst_compactness worst_concavity worst_concave_points worst_symmetry worst_fractal_dimension
feature_infos=[6.9809999999999999:28.109999999999999] [9.7100000000000009:39.280000000000001] [43.789999999999999:188.5] [143.5:2501] [0.052630000000000003:0.16339999999999999] [0.019380000000000001:0.28670000000000001] [0:0.42680000000000001] [0:0.20119999999999999] [0.106:0.30399999999999999] [0.05024:0.095750000000000002] [0.1153:2.8730000000000002] [0.36020000000000002:4.8849999999999998] [0.75700000000000001:21.98] [6.8019999999999996:542.20000000000005] [0.0017129999999999999:0.031130000000000001] [0.0022520000000000001:0.13539999999999999] [0:0.39600000000000002] [0:0.052789999999999997] [0.0095390000000000006:0.061460000000000001] [0.00089479999999999996:0.029839999999999998] [7.9299999999999997:36.039999999999999] [12.02:49.539999999999999] [50.409999999999997:251.19999999999999] [185.19999999999999:4254] [0.071169999999999997:0.22259999999999999] [0.027289999999999998:0.93789999999999996] [0:0.96079999999999999] [0:0.29099999999999998] [0.15659999999999999:0.55579999999999996] [0.055210000000000002:0.14860000000000001]
tree_sizes=618 637 974 1151 1321 1304 1407 1317 1312 1308 1219 1318 1323 1293 1296 1314 1309 1405 1221 1409

Tree=0
num_leaves=6
num_cat=0
split_feature=22 27 7 0 0
split_gain=55.4558 6.118 0.188455 0.160784 3.55271e-15
threshold=104.10000000000001 0.14150000000000004 0.034975000000000006 15.050000000000002 13.125000000000002
decision_type=2 2 2 2 2
left_child=2 -2 4 -3 -1
right_child=1 3 -4 -5 -6
leaf_value=0.6443467335260693 0.62101340088812351 0.59934673486717382 0.64039936522265739 0.5943467350161854 0.6443467335260693
leaf_weight=126 30 20 38 82 22
leaf_count=126 30 20 38 82 22
internal_value=0 -0.489264 0.358243 -0.60602 0.374372
internal_weight=0 132 186 102 148
internal_count=318 132 186 102 148
shrinkage=1


Tree=1
num_leaves=6
num_cat=0
split_feature=22 27 7 21 2
split_gain=50.0488 5.5215 0.170081 0.160706 0.000241951
threshold=104.10000000000001 0.14150000000000004 0.034975000000000006 24.895000000000003 101.90000000000002
decision_type=2 2 2 2 2
left_child=2 -2 -1 -3 -5
right_child=1 3 -4 4 -6
leaf_value=0.017782662808895112 -0.0043840034802754722 -0.024767337888479235 0.014032663365727976 -0.029917337894439702 -0.029717338085174561
leaf_weight=148 30 20 38 20 62
leaf_count=148 30 20 38 20 62
internal_value=0 -0.464801 0.340331 -0.575719 -0.595322
internal_weight=0 132 186 102 82
internal_count=318 132 186 102 82
shrinkage=0.05


Tree=2
num_leaves=10
num_cat=0
split_feature=22 6 23 21 25 26 7 1 4
split_gain=45.1691 5.13752 0.540167 0.157761 0.0463916 0.0017575 0.0015133 0.000140456 6.16863e-06
threshold=104.10000000000001 0.086155000000000009 901.75000000000011 30.890000000000004 0.083190000000000014 0.34440000000000009 0.034975000000000006 20.455000000000002 0.10765000000000001
decision_type=2 2 2 2 2 2 2 2 2
left_child=3 -2 -3 4 -1 -4 -6 -7 -9
right_child=1 2 5 -5 6 7 -8 8 -10
leaf_value=0.01441277325153351 -0.0011530324816703796 -0.019310720115900043 -0.02882584482431412 0.011970503479242327 0.016893529891967775 -0.028403970301151278 0.017278398573398589 -0.028231111701045721 -0.028267468959093097
leaf_weight=20 24 20 20 20 113 20 33 28 20
leaf_count=20 24 20 20 20 113 20 33 28 20
internal_value=0 -0.441561 -0.534561 0.323314 0.333423 -0.568277 0.33961 -0.565853 -0.564925
internal_weight=0 132 108 186 166 88 146 68 48
internal_count=318 132 108 186 166 88 146 68 48
shrinkage=0.05


Tree=3
num_leaves=12
num_cat=0
split_feature=22 27 17 17 21 2 7 1 25 20 15
split_gain=40.7651 4.62812 0.158863 0.23521 0.146318 0.00234042 0.000429911 0.000196957 6.31755e-05 2.68175e-05 7.59712e-07
threshold=104.10000000000001 0.14150000000000004 0.013115000000000002 0.016245000000000006 24.895000000000003 101.90000000000002 0.032570000000000009 21.640000000000004 0.095305000000000015 22.055000000000003 0.032045000000000011
decision_type=2 2 2 2 2 2 2 2 2 2 2
left_child=2 -2 6 -4 -3 -6 7 8 -1 -7 -11
right_child=1 4 3 -5 5 9 -8 -9 -10 10 -12
leaf_value=0.016148084104061128 -0.0037108263870080311 -0.022217091396450998 0.0087288068234920493 0.016305241201605116 -0.027457173764705658 -0.026882794350385666 0.016338014602661134 0.016233598576350646 0.016048853099346162 -0.026805396080017092 -0.026818860660899769
leaf_weight=20 30 20 20 21 20 20 22 22 81 20 22
leaf_count=20 30 20 20 21 20 20 22 22 81 20 22
internal_value=0 -0.419483 0.307148 0.252188 -0.521032 -0.539737 0.322689 0.321961 0.32137 -0.536703 -0.536249
internal_weight=0 132 186 41 102 82 145 123 101 62 42
internal_count=318 132 186 41 102 82 145 123 101 62 42
shrinkage=0.05


Tree=4
num_leaves=14
num_cat=0
split_feature=22 6 23 5 28 25 17 1 21 20 6 28 6
split_gain=36.7905 4.34832 0.452569 0.144345 0.0407705 0.00360671 0.000758238 0.000476536 0.000169078 2.38483e-05 1.75799e-05 6.24458e-06 2.96206e-08
threshold=104.10000000000001 0.086155000000000009 901.75000000000011 0.12310000000000001 0.22045000000000001 0.25775000000000009 0.011630000000000001 20.685000000000006 28.290000000000003 14.445000000000002 0.016105000000000005 0.32930000000000009 0.036685000000000009
decision_type=2 2 2 2 2 2 2 2 2 2 2 2 2
left_child=3 -2 -3 4 -1 -4 8 -7 9 10 -6 -9 -12
right_child=1 2 5 -5 6 7 -8 11 -10 -11 12 -13 -14
leaf_value=0.012955884262919427 -0.00067459512501955032 -0.017414086684584617 -0.026336680650711059 0.010576693341135979 0.01529999516904354 -0.025777903199195863 0.015582512078746672 -0.02547216777290617 0.015425141090932099 0.015321874991059303 0.015245897502734744 -0.025508748143911367 0.015243494769801264
leaf_weight=20 24 20 20 20 20 20 31 28 23 20 29 20 23
leaf_count=20 24 20 20 20 20 20 31 28 23 20 29 20 23
internal_value=0 -0.398509 -0.484068 0.291791 0.301461 -0.514929 0.307261 -0.511457 0.306078 0.305471 0.305203 -0.509748 0.304897
internal_weight=0 132 108 186 166 88 146 68 115 92 72 48 52
internal_count=318 132 108 186 166 88 146 68 115 92 72 48 52
shrinkage=0.05


Tree=5
num_leaves=14
num_cat=0
split_feature=27 20 7 10 20 7 7 13 1 19 5 11 15
split_gain=34.4141 5.11178 0.802403 0.159108 0.0188164 0.00795859 0.00139233 0.000696584 0.000142879 0.000134536 0.000110822 2.18484e-05 1.81781e-06
threshold=0.1358 16.515000000000004 0.060015000000000006 0.42035000000000006 15.125000000000002 0.077915000000000012 0.034975000000000006 52.940000000000005 21.255000000000006 0.0046185000000000011 0.047385000000000004 1.2270000000000001 0.012855000000000002
decision_type=2 2 2 2 2 2 2 2 2 2 2 2 2
left_child=1 3 -2 4 6 -4 9 -7 -9 10 -1 12 -12
right_child=2 -3 5 -5 -6 7 -8 8 -10 -11 11 -13 -14
leaf_value=0.014627635044356189 -0.01356832914054394 -0.012300618737936021 -0.025464274769737606 0.0100969085842371 0.016256807893514632 -0.024608794674277307 0.014997311433156333 -0.024366409927606584 -0.02419605040922761 0.01467239736091523 0.014499608129262926 0.014544758262733617 0.01448071186031614
leaf_weight=24 20 20 21 20 20 20 21 20 32 21 20 24 35
leaf_count=24 20 20 21 20 20 20 21 20 32 21 20 24 35
internal_value=0 0.234252 -0.453079 0.286172 0.296382 -0.492156 0.292416 -0.48716 -0.485231 0.291141 0.290671 0.290099 0.289752
internal_weight=0 205 113 185 165 93 145 72 52 124 103 79 55
internal_count=318 205 113 185 165 93 145 72 52 124 103 79 55
shrinkage=0.05


Tree=6
num_leaves=15
num_cat=0
split_feature=22 7 7 18 13 7 2 22 17 21 21 6 24 14
split_gain=31.7849 2.88691 0.693222 0.12057 0.0389577 0.0248789 0.00341194 0.00139028 0.000683848 0.000149739 0.000142391 3.89879e-05 8.64499e-06 1.70182e-07
threshold=105.40000000000002 0.048770000000000008 0.045465000000000012 0.014570000000000001 28.845000000000002 0.068540000000000018 85.935000000000016 142.10000000000002 0.012630000000000001 26.555000000000003 28.470000000000002 0.014705000000000001 0.13785000000000003 0.005696500000000001
decision_type=2 2 2 2 2 2 2 2 2 2 2 2 2 2
left_child=2 -2 4 -3 6 -5 8 -7 9 11 -9 -1 13 -13
right_child=1 3 -4 5 -6 7 -8 10 -10 -11 -12 12 -14 -15
leaf_value=0.01384740627947308 -0.002146500423550606 -0.019841147729983698 0.0042421914637088779 -0.025230479169459571 0.011613878011703492 -0.023582373410463334 0.014572968706488609 -0.023172431737184526 0.014123834737322547 0.013940347358584404 -0.022988096285950055 0.013757919669151306 0.013792616625626884 0.013751396983861925
leaf_weight=21 20 26 22 21 20 20 20 20 22 20 22 20 24 20
leaf_count=21 20 26 22 21 20 20 20 20 22 20 22 20 24 20
internal_value=0 -0.392167 0.251704 -0.456247 0.273685 -0.474861 0.279319 -0.464785 0.277407 0.276345 -0.461518 0.275766 0.275378 0.275093
internal_weight=0 129 189 109 167 83 147 62 127 105 42 85 64 40
internal_count=318 129 189 109 167 83 147 62 127 105 42 85 64 40
shrinkage=0.05


Tree=7
num_leaves=14
num_cat=0
split_feature=22 1 27 10 27 25 0 17 21 14 12 19 19
split_gain=28.6926 2.34357 1.06941 0.145123 0.0605341 0.0390014 0.00759349 0.00170904 0.000385017 0.000254805 5.26015e-05 4.25103e-05 4.18093e-06
threshold=106.30000000000003 17.375000000000004 0.11275000000000002 0.36630000000000001 0.15480000000000002 0.083190000000000014 13.685 0.012630000000000001 28.290000000000003 0.0077060000000000002 2.0980000000000003 0.0037090000000000001 0.0022620000000000006
decision_type=2 2 2 2 2 2 2 2 2 2 2 2 2
left_child=2 -2 5 -3 -5 -1 7 8 10 11 12 -6 -7
right_child=1 3 -4 4 9 6 -8 -9 -10 -11 -12 -13 -14
leaf_value=0.011206895982225736 -0.0031590235978364947 -0.018079450726509096 0.00085642144083976747 -0.025049575240839096 -0.021939216673374177 0.013087786801836707 0.014286381974816324 0.013591200278864969 0.013339121267199517 -0.022110241055488589 0.013164072111248971 -0.021841416731476784 0.013060397615558224
leaf_weight=24 20 21 20 21 25 22 20 27 20 20 20 20 38
leaf_count=24 20 21 20 21 25 22 20 27 20 20 20 20 38
internal_value=0 -0.377386 0.235924 -0.436116 -0.454315 0.261514 0.267616 0.264764 0.262858 -0.439235 0.261877 -0.437915 0.261409
internal_weight=0 127 191 107 86 171 147 127 100 65 80 45 60
internal_count=318 127 191 107 86 171 147 127 100 65 80 45 60
shrinkage=0.05


Tree=8
num_leaves=14
num_cat=0
split_feature=22 22 27 27 28 3 1 17 13 21 6 13 28
split_gain=25.9143 2.27388 0.625621 0.0374066 0.0364372 0.00304626 0.0021119 0.00121997 0.000283111 0.000282875 7.9937e-05 2.3908e-05 3.86724e-07
threshold=105.40000000000002 117.45000000000002 0.11020000000000001 0.15605000000000002 0.22045000000000001 572.05000000000007 20.455000000000002 0.011750000000000002 68.260000000000005 28.805000000000003 0.015445000000000002 19.175000000000001 0.27795000000000009
decision_type=2 2 2 2 2 2 2 2 2 2 2 2 2
left_child=2 -2 4 -3 -1 7 -5 9 -8 10 -6 12 -12
right_child=1 3 -4 6 5 -7 8 -9 -10 -11 11 -13 -14
leaf_value=0.010377849079668523 -0.0061472890432924037 -0.02344436101615429 0.0032273443681853156 -0.021418592852094902 0.01254484321922064 0.013225512690842151 -0.020995739102363589 0.012920681722462177 -0.020758661189500024 0.012665289081633092 0.012406476451592013 0.012475482090598062 0.012415565907955171
leaf_weight=20 32 20 21 23 20 20 20 20 34 20 22 21 25
leaf_count=20 32 20 21 23 20 20 20 20 34 20 22 21 25
internal_value=0 -0.354099 0.227278 -0.430355 0.247619 0.253033 -0.420347 0.25124 -0.416929 0.249911 0.249139 0.248623 0.248226
internal_weight=0 129 189 97 168 148 77 128 54 108 88 68 47
internal_count=318 129 189 97 168 148 77 128 54 108 88 68 47
shrinkage=0.05


Tree=9
num_leaves=14
num_cat=0
split_feature=27 20 6 11 20 22 7 1 18 19 5 9 3
split_gain=23.5938 3.37339 0.588253 0.137328 0.0465735 0.0310022 0.00701679 0.00166687 0.000330936 0.000263263 0.000241487 7.48968e-05 1.79682e-05
threshold=0.1358 16.515000000000004 0.099195000000000019 1.9965000000000004 18.530000000000005 99.165000000000006 0.036565000000000007 20.455000000000002 0.017615000000000002 0.0046185000000000011 0.047385000000000004 0.063240000000000005 490.90000000000003
decision_type=2 2 2 2 2 2 2 2 2 2 2 2 2
left_child=1 3 -2 5 -4 6 9 -6 -9 10 -1 12 -12
right_child=2 -3 4 -5 7 -7 -8 8 -10 -11 11 -13 -14
leaf_value=0.011995977848768234 -0.011413670805367558 -0.0098025388270616548 -0.022655769437551501 0.0079008486866950986 -0.020298000531537193 0.014133361242711546 0.012902962155640125 -0.019924714788794519 -0.019662141154209774 0.012051288749683989 0.01180658499399821 0.011884741347145152 0.011746282307874591
leaf_weight=25 22 20 20 20 21 20 20 20 30 22 30 27 21
leaf_count=25 22 20 20 20 21 20 20 20 30 22 30 27 21
internal_value=0 0.194095 -0.375015 0.236273 -0.410491 0.245759 0.240668 -0.398484 -0.395343 0.237886 0.237215 0.236348 0.235635
internal_weight=0 205 113 185 91 165 145 71 50 125 103 78 51
internal_count=318 205 113 185 91 165 145 71 50 125 103 78 51
shrinkage=0.05


Tree=10
num_leaves=13
num_cat=0
split_feature=22 7 21 21 20 7 5 2 11 17 25 21
split_gain=21.7616 2.06862 0.280193 0.132537 0.0291254 0.0275718 0.00415378 0.000648803 0.000513321 0.000179474 0.000100039 5.6728e-05
threshold=104.10000000000001 0.054180000000000006 31.680000000000003 24.225000000000005 18.085000000000004 0.034975000000000006 0.12145000000000002 83.625000000000014 1.542 0.0086720000000000009 0.12010000000000001 30.600000000000005
decision_type=2 2 2 2 2 2 2 2 2 2 2 2
left_child=2 -2 5 -3 -5 7 -6 8 9 10 -1 -8
right_child=1 3 -4 4 6 -7 11 -9 -10 -11 -12 -13
leaf_value=0.011347757913172246 -0.0023961596190929415 -0.014968303889036179 0.0056117678907784546 -0.021156679689884189 -0.019545462321151386 0.012989975214004518 -0.018649738552895461 0.011109130457043648 0.011581530195215475 0.011414237500264726 0.011206041524807614 -0.018762043766353445
leaf_weight=20 24 20 22 20 22 30 22 30 23 29 33 23
leaf_count=20 24 20 22 20 22 30 22 30 23 29 33 23
internal_value=0 -0.313256 0.218243 -0.37277 -0.389645 0.232378 -0.379648 0.226284 0.227456 0.226285 0.22519 -0.374143
internal_weight=0 131 187 107 87 165 67 135 105 82 53 45
internal_count=318 131 187 107 87 165 67 135 105 82 53 45
shrinkage=0.05


Tree=11
num_leaves=14
num_cat=0
split_feature=22 27 21 6 27 12 17 3 11 26 22 12 21
split_gain=19.6399 1.98722 0.252874 0.0600901 0.0312671 0.0226405 0.0020171 0.00161567 0.000658367 0.000412456 0.000167705 7.68527e-05 1.06151e-05
threshold=104.10000000000001 0.14150000000000004 31.680000000000003 0.22595000000000001 0.10775000000000001 2.7095000000000007 0.012985000000000002 928.25000000000011 1.1840000000000002 0.036675000000000006 96.715000000000018 2.1145000000000005 21.070000000000004
decision_type=2 2 2 2 2 2 2 2 2 2 2 2 2
left_child=2 -2 4 5 6 -3 9 -7 -9 -1 11 12 -11
right_child=1 3 -4 -5 -6 7 -8 8 -10 10 -12 -13 -14
leaf_value=0.010899559585821061 -0.0027934047910902239 -0.020025691248121716 0.0053311796012249866 -0.01555437095463276 0.012840306758880616 -0.018501252904534343 0.011227986890645254 -0.018157541326114111 -0.017766144668514079 0.010683742423470205 0.010537405344455139 0.010770199820399284 0.010640420980991857
leaf_weight=21 27 21 22 20 21 20 21 21 22 26 23 22 31
leaf_count=21 27 21 22 20 21 20 21 21 22 26 23 22 31
internal_value=0 -0.297594 0.207331 -0.360349 0.220759 -0.372078 0.215502 -0.3626 -0.359146 0.213955 0.213125 0.213816 0.213204
internal_weight=0 131 187 104 165 84 144 63 43 123 102 79 57
internal_count=318 131 187 104 165 84 144 63 43 123 102 79 57
shrinkage=0.05


Tree=12
num_leaves=14
num_cat=0
split_feature=22 27 21 6 27 10 17 1 10 26 22 10 21
split_gain=17.725 1.79347 0.228219 0.0542314 0.0282185 0.0235753 0.00182043 0.00137979 0.000767328 0.000372242 0.000151354 6.36688e-05 7.42209e-06
threshold=104.10000000000001 0.14150000000000004 31.680000000000003 0.22595000000000001 0.10775000000000001 0.36995000000000006 0.012985000000000002 20.455000000000002 0.62085000000000012 0.036675000000000006 96.715000000000018 0.30990000000000006 23.200000000000006
decision_type=2 2 2 2 2 2 2 2 2 2 2 2 2
left_child=2 -2 4 5 6 -3 9 -7 -9 -1 11 12 -11
right_child=1 3 -4 -5 -6 7 -8 8 -10 10 -12 -13 -14
leaf_value=0.010354581581694741 -0.002653734441156741 -0.019172133877873421 0.0050646204501390464 -0.014776652529835703 0.012198291541565032 -0.017537662386894227 0.010666587629488536 -0.017259398670423597 -0.016836852783506568 0.010142844074811691 0.010010534913643548 0.010233374461531639 0.010105380266904832
leaf_weight=21 27 20 22 20 21 21 21 21 22 39 23 20 20
leaf_count=21 27 20 22 20 21 21 21 21 22 39 23 20 20
internal_value=0 -0.282714 0.196965 -0.342332 0.209721 -0.353474 0.204727 -0.344109 -0.340864 0.203258 0.202468 0.203126 0.202603
internal_weight=0 131 187 104 165 84 144 64 43 123 102 79 59
internal_count=318 131 187 104 165 84 144 64 43 123 102 79 59
shrinkage=0.05


Tree=13
num_leaves=14
num_cat=0
split_feature=20 27 1 27 5 14 9 21 9 17 22 22 2
split_gain=16.1608 3.15872 0.183057 0.0921655 0.0423635 0.0205999 0.0118106 0.00417821 0.000571003 0.000487209 0.000142971 5.00737e-05 4.17751e-05
threshold=16.98 0.1358 18.690000000000001 0.15480000000000002 0.10925000000000001 0.0097105000000000021 0.056485000000000007 28.665000000000003 0.065730000000000025 0.010050000000000002 77.885000000000019 159.30000000000004 81.200000000000017
decision_type=2 2 2 2 2 2 2 2 2 2 2 2 2
left_child=1 4 -2 -4 5 6 -1 9 11 10 -8 -5 -12
right_child=2 -3 3 8 -6 -7 7 -9 -10 -11 12 -13 -14
leaf_value=0.011086671697822485 -0.011900122687220575 -0.0081592516214759256 -0.020003089647401464 -0.016079404408281501 0.0118238439242686 0.0083433645112173903 0.0097200972959399223 0.010476034842431545 -0.01645605593919754 0.0098631331840386763 0.0096010554995801731 -0.016188717707991601 0.009505714252591134
leaf_weight=22 20 27 22 22 31 21 20 20 20 26 27 20 20
leaf_count=22 20 27 22 22 31 21 20 20 20 26 27 20 20
internal_value=0 0.156548 -0.323983 -0.344455 0.202713 0.196003 0.200535 0.196408 -0.324723 0.193588 0.192163 -0.322629 0.19121
internal_weight=0 214 104 84 187 156 135 113 62 93 67 42 47
internal_count=318 214 104 84 187 156 135 113 62 93 67 42 47
shrinkage=0.05


Tree=14
num_leaves=14
num_cat=0
split_feature=20 27 1 27 5 18 9 21 13 9 18 4 22
split_gain=14.5851 2.85074 0.165209 0.0831794 0.0382331 0.0220913 0.0103444 0.00401553 0.000794696 0.000515329 8.5027e-05 5.27739e-05 4.27091e-05
threshold=16.98 0.1358 18.690000000000001 0.15480000000000002 0.10925000000000001 0.026910000000000003 0.056485000000000007 29.085000000000004 25.175000000000004 0.065730000000000025 0.018795000000000003 0.095785000000000023 83.945000000000007
decision_type=2 2 2 2 2 2 2 2 2 2 2 2 2
left_child=1 4 -2 -4 5 6 -1 8 11 10 -5 12 -8
right_child=2 -3 3 9 -6 -7 7 -9 -10 -11 -12 -13 -14
leaf_value=0.010570296077501207 -0.011305116415023804 -0.0077512891756163702 -0.019002935493534264 -0.015396027054105485 0.011232651722046638 0.0078416986898942435 0.0091593726405075609 0.010004584193229676 0.0095028712972998614 -0.015633252933621406 -0.015253743813151406 0.009195249900221825 0.009057279266417027
leaf_weight=21 20 27 22 21 31 22 21 20 20 20 21 32 20
leaf_count=21 20 27 22 21 31 22 21 20 20 20 21 32 20
internal_value=0 0.148721 -0.307784 -0.327232 0.192577 0.186203 0.191025 0.187237 0.184473 -0.308487 -0.306498 0.182943 0.182191
internal_weight=0 214 104 84 187 156 134 113 93 62 42 73 41
internal_count=318 214 104 84 187 156 134 113 93 62 42 73 41
shrinkage=0.05


Tree=15
num_leaves=14
num_cat=0
split_feature=27 13 24 28 22 18 20 1 28 17 14 15 28
split_gain=14.1019 0.697526 0.400596 0.19035 0.157676 0.0937758 0.149113 0.00416908 0.00219423 0.00103047 0.000242467 0.000136953 3.51294e-05
threshold=0.1358 34.405000000000008 0.13085000000000002 0.31745000000000007 99.955000000000013 0.013755000000000002 17.665000000000003 21.710000000000004 0.31065000000000004 0.012985000000000002 0.0083770000000000008 0.011050000000000003 0.27260000000000006
decision_type=2 2 2 2 2 2 2 2 2 2 2 2 2
left_child=1 3 -2 4 7 -4 -7 9 -8 10 11 -1 -13
right_child=2 -3 5 -5 -6 6 8 -9 -10 -11 -12 12 -14
leaf_value=0.0087732583656907094 -0.0087986062963803617 -0.00093380916863679882 -0.012450784966349602 0.0046697945698447856 0.013572638730208079 -0.019981726258993152 -0.01446775384247303 0.0095422152768481865 -0.015143868178129197 0.0090797530487179753 0.008858384050074079 0.0085747241973876953 0.0086611980329389156
leaf_weight=20 30 20 20 23 21 20 20 22 30 24 21 24 23
leaf_count=20 30 20 20 23 21 20 20 22 30 24 21 24 23
internal_value=0 0.158393 -0.276047 0.178288 0.190885 -0.309405 -0.326659 0.178259 -0.297468 0.175787 0.174203 0.173273 0.172341
internal_weight=0 198 120 178 155 90 70 134 50 112 88 67 47
internal_count=318 198 120 178 155 90 70 134 50 112 88 67 47
shrinkage=0.05


Tree=16
num_leaves=14
num_cat=0
split_feature=27 13 1 28 20 10 1 7 10 24 11 27 2
split_gain=12.727 0.629517 0.383357 0.171791 0.135432 0.0859366 0.00372781 0.0010033 0.000942442 0.000338532 0.000226897 0.000167839 2.49942e-05
threshold=0.1358 34.405000000000008 19.655000000000005 0.31745000000000007 15.345000000000001 0.41610000000000008 21.710000000000004 0.030815000000000002 0.62085000000000012 0.13895000000000005 1.5025000000000002 0.046590000000000006 76.845000000000013
decision_type=2 2 2 2 2 2 2 2 2 2 2 2 2
left_child=1 3 -2 4 6 -4 7 10 -7 -10 11 -1 -13
right_child=2 -3 5 -5 -6 8 -8 -9 9 -11 -12 12 -14
leaf_value=0.0083706131950020794 -0.0086176164448261271 -0.0008871190622448922 -0.017760368436574938 0.004436304873746375 0.012800467298144387 -0.014261041343212127 0.0090613108938154968 0.0086825629323720923 -0.014011752676396145 -0.013724319487810136 0.0084355871947038742 0.0082318587159668968 0.0081609288311522941
leaf_weight=20 34 20 20 23 21 25 23 20 21 20 21 27 23
leaf_count=20 34 20 20 23 21 25 23 20 21 20 21 27 23
internal_value=0 0.150473 -0.262244 0.169374 0.181341 -0.297783 0.169639 0.167238 -0.280382 -0.277431 0.165829 0.164964 0.163985
internal_weight=0 198 120 178 155 86 134 111 66 41 91 70 50
internal_count=318 198 120 178 155 86 134 111 66 41 91 70 50
shrinkage=0.05


Tree=17
num_leaves=15
num_cat=0
split_feature=27 13 21 22 18 16 20 1 7 28 3 27 2 29
split_gain=11.5406 1.57437 0.282094 0.351973 0.350031 0.137918 0.0722329 0.00944237 0.00509438 0.00100947 0.000462396 0.0002561 0.000159468 3.28711e-05
threshold=0.14560000000000003 34.985000000000007 28.020000000000007 101.05000000000003 0.018000000000000006 0.059095000000000009 18.280000000000005 20.455000000000002 0.032770000000000007 0.31095000000000006 1126.5000000000002 0.043850000000000007 80.535000000000011 0.080140000000000003
decision_type=2 2 2 2 2 2 2 2 2 2 2 2 2 2
left_child=1 2 3 8 -4 6 -2 -8 9 11 -9 -1 13 -13
right_child=5 -3 4 -5 -6 -7 7 10 -10 -11 -12 12 -14 -15
leaf_value=0.0079797924711154065 -0.016928739249706268 -0.0067118242755532277 -0.00036532152444124222 0.015040679311468489 0.0089892306923866263 -0.0096879876032471661 -0.0143709964372895 -0.012941402941942216 0.008789697922766208 0.0082416004315018655 -0.013256852271465155 0.0078961034119129185 0.0076807938870929546 0.0078065371584324613
leaf_weight=26 20 20 20 21 20 20 22 21 20 20 26 20 21 21
leaf_count=26 20 20 20 21 20 20 22 21 20 20 26 20 21 21
internal_value=0 0.13257 0.160803 0.18082 0.0862391 -0.268797 -0.285659 -0.270322 0.161134 0.158419 -0.262318 0.156962 0.155857 0.157005
internal_weight=0 209 189 149 40 109 89 69 128 108 47 88 62 41
internal_count=318 209 189 149 40 109 89 69 128 108 47 88 62 41
shrinkage=0.05


Tree=18
num_leaves=13
num_cat=0
split_feature=27 13 12 7 7 21 9 13 1 28 22 11
split_gain=10.4434 0.834536 0.200839 0.115094 0.0911674 0.0509808 0.0317259 0.0155068 0.00720584 0.000712988 0.000169924 8.39591e-05
threshold=0.12230000000000001 32.980000000000011 3.1130000000000004 0.037805000000000012 0.070020000000000013 30.365000000000006 0.056720000000000013 67.510000000000005 20.725000000000005 0.31185000000000007 87.230000000000004 1.26
decision_type=2 2 2 2 2 2 2 2 2 2 2 2
left_child=2 -2 3 5 -3 6 -1 -6 -9 10 11 -8
right_child=1 4 -4 -5 7 -7 9 8 -10 -11 -12 -13
leaf_value=0.0096913452073931691 -0.0043752292862960273 -0.016389501206576822 0.0027900378973711106 0.011537293568253518 -0.011402714774012565 0.0051473186910152438 0.0074585330569081846 -0.013785532228648662 -0.012607563327293139 0.0077871359139680867 0.0073544658188308999 0.0075843329585733865
leaf_weight=20 35 20 21 20 20 20 36 20 37 20 28 21
leaf_count=20 35 20 21 20 20 20 36 20 37 20 28 21
internal_value=0 -0.219874 0.147909 0.159632 -0.267636 0.149823 0.157324 -0.252012 -0.260418 0.150371 0.149107 0.150098
internal_weight=0 132 186 165 97 145 125 77 57 105 85 57
internal_count=318 132 186 165 97 145 125 77 57 105 85 57
shrinkage=0.05


Tree=19
num_leaves=15
num_cat=0
split_feature=27 13 21 22 18 6 12 7 1 28 3 10 10 24
split_gain=9.48706 1.33903 0.245138 0.333863 0.304663 0.127488 0.0750858 0.00513714 0.00355773 0.000871152 0.00037878 0.000359015 0.000163838 5.76137e-05
threshold=0.14560000000000003 34.985000000000007 28.020000000000007 101.05000000000003 0.018000000000000006 0.22595000000000001 2.7095000000000007 0.032770000000000007 20.685000000000006 0.31095000000000006 500.15000000000003 0.62935000000000019 0.32905000000000006 0.13265000000000002
decision_type=2 2 2 2 2 2 2 2 2 2 2 2 2 2
left_child=1 2 3 7 -4 6 -2 9 -8 10 12 -10 13 -1
right_child=5 -3 4 -5 -6 -7 8 -9 11 -11 -12 -13 -14 -15
leaf_value=0.0071545378863811489 -0.015549565343694253 -0.0062919695302844055 -0.00052624884992837908 0.014089093108971915 0.0082010440900921831 -0.0086840934341862099 -0.012733373977243901 0.0080232305452227603 -0.012086988879101618 0.0074487173929810527 0.0068978565079825267 -0.011806558132171631 0.0072610812261700635 0.0070425722058172577
leaf_weight=20 22 20 20 21 20 21 20 20 21 20 21 25 20 27
leaf_count=20 22 20 20 21 20 21 20 20 21 20 21 25 20 27
internal_value=0 0.120218 0.146256 0.164916 0.076748 -0.243691 -0.260397 0.145743 -0.243533 0.143017 0.141663 -0.238692 0.142824 0.141804
internal_weight=0 209 189 149 40 109 88 128 66 108 88 46 67 47
internal_count=318 209 189 149 40 109 88 128 66 108 88 46 67 47
shrinkage=0.05


end of trees

feature importances:
worst_concave_points=24
worst_perimeter=23
worst_texture=20
mean_concave_points=18
mean_texture=16
worst_radius=12
area_error=11
concave_points_error=11
worst_symmetry=11
mean_concavity=10
radius_error=9
mean_perimeter=7
symmetry_error=7
mean_compactness=6
mean_fractal_dimension=6
texture_error=6
mean_area=5
perimeter_error=5
worst_compactness=5
smoothness_error=4
fractal_dimension_error=4
worst_smoothness=4
mean_radius=3
compactness_error=3
worst_concavity=3
mean_smoothness=2
worst_area=2
concavity_error=1
worst_fractal_dimension=1

parameters:
[boosting: gbdt]
[objective: regression]
[metric: l2,l1]
[tree_learner: serial]
[device_type: cpu]
[data: ]
[valid: ]
[num_iterations: 100]
[learning_rate: 0.05]
[num_leaves: 31]
[num_threads: 0]
[max_depth: -1]
[min_data_in_leaf: 20]
[min_sum_hessian_in_leaf: 0.001]
[bagging_fraction: 0.8]
[pos_bagging_fraction: 1]
[neg_bagging_fraction: 1]
[bagging_freq: 5]
[bagging_seed: 3]
[feature_fraction: 0.9]
[feature_fraction_bynode: 1]
[feature_fraction_seed: 2]
[early_stopping_round: 0]
[first_metric_only: 0]
[max_delta_step: 0]
[lambda_l1: 0]
[lambda_l2: 0]
[min_gain_to_split: 0]
[drop_rate: 0.1]
[max_drop: 50]
[skip_drop: 0.5]
[xgboost_dart_mode: 0]
[uniform_drop: 0]
[drop_seed: 4]
[top_rate: 0.2]
[other_rate: 0.1]
[min_data_per_group: 100]
[max_cat_threshold: 32]
[cat_l2: 10]
[cat_smooth: 10]
[max_cat_to_onehot: 4]
[top_k: 20]
[monotone_constraints: ]
[feature_contri: ]
[forcedsplits_filename: ]
[forcedbins_filename: ]
[refit_decay_rate: 0.9]
[cegb_tradeoff: 1]
[cegb_penalty_split: 0]
[cegb_penalty_feature_lazy: ]
[cegb_penalty_feature_coupled: ]
[verbosity: 0]
[max_bin: 255]
[max_bin_by_feature: ]
[min_data_in_bin: 3]
[bin_construct_sample_cnt: 200000]
[histogram_pool_size: -1]
[data_random_seed: 1]
[output_model: LightGBM_model.txt]
[snapshot_freq: -1]
[input_model: ]
[output_result: LightGBM_predict_result.txt]
[initscore_filename: ]
[valid_data_initscores: ]
[pre_partition: 0]
[enable_bundle: 1]
[max_conflict_rate: 0]
[is_enable_sparse: 1]
[sparse_threshold: 0.8]
[use_missing: 1]
[zero_as_missing: 0]
[two_round: 0]
[save_binary: 0]
[header: 0]
[label_column: ]
[weight_column: ]
[group_column: ]
[ignore_column: ]
[categorical_feature: ]
[predict_raw_score: 0]
[predict_leaf_index: 0]
[predict_contrib: 0]
[num_iteration_predict: -1]
[pred_early_stop: 0]
[pred_early_stop_freq: 10]
[pred_early_stop_margin: 10]
[convert_model_language: ]
[convert_model: gbdt_prediction.cpp]
[num_class: 1]
[is_unbalance: 0]
[scale_pos_weight: 1]
[sigmoid: 1]
[boost_from_average: 1]
[reg_sqrt: 0]
[alpha: 0.9]
[fair_c: 1]
[poisson_max_delta_step: 0.7]
[tweedie_variance_power: 1.5]
[max_position: 20]
[lambdamart_norm: 1]
[label_gain: ]
[metric_freq: 1]
[is_provide_training_metric: 0]
[eval_at: ]
[multi_error_top_k: 1]
[num_machines: 1]
[local_listen_port: 12400]
[time_out: 120]
[machine_list_filename: ]
[machines: ]
[gpu_platform_id: -1]
[gpu_device_id: -1]
[gpu_use_dp: 0]

end of parameters

pandas_categorical:[]
